tree
version=v3
num_class=1
num_tree_per_iteration=1
label_index=0
max_feature_idx=11
objective=regression
feature_names=Column_0 Column_1 Column_2 Column_3 Column_4 Column_5 Column_6 Column_7 Column_8 Column_9 Column_10 Column_11
feature_infos=[25.23:4217.4099999999999] [25.23:4233.6599999999999] [25.510000000000002:4258.04] [24.690000000000001:4154.0200000000004] [1:5086050] [0:19.510000000000002] [25.708000000000009:4170.2719999999999] [26.099:4126.7169999999996] [-204.07025689558529:211.39199295124945] [-76.118017568228282:59.70755972804686] [-185.29671927756812:191.53075897350928] [0.30621557411607098:178.80558069399228]
tree_sizes=2690 2711 2718 2740 2726 2732 2712 2722 2748 2736 2732 2724 2742 2736 2731 2749 2752 2737 2722

Tree=0
num_leaves=31
num_cat=0
split_feature=5 9 5 9 5 8 4 11 4 8 11 4 11 5 4 1 11 1 4 0 7 4 10 5 9 1 10 10 1 7
split_gain=1682.33 480.091 445.233 431.186 274.244 246.386 198.125 194.751 160.521 297.732 198.558 157.821 139.573 124.988 117.497 100.506 125.117 87.2227 166.012 94.5384 71.3379 145.824 84.0553 68.6454 63.1641 64.969 63.0038 61.5576 77.3086 61.136
threshold=1.8650000000000004 0.17432291255824414 5.705000000000001 0.1994436358904195 0.72500000000000009 -0.32789576105743373 639011.50000000012 2.3373941377310348 383028.50000000006 42.282865938470486 5.2178030909960489 2093080.5000000002 41.432406478069105 2.4850000000000008 142503.00000000003 2602.0450000000005 55.735441628548237 1255.9650000000004 733414.00000000012 1624.6250000000002 911.57650000000024 407753.50000000006 7.2236815540799784 2.2950000000000004 -15.959775178618189 44.115000000000002 37.736862538846317 69.211714431158967 1158.0800000000002 213.53050000000005
decision_type=2 2 2 2 2 2 2 2 2 2 2 2 2 2 2 2 2 2 2 2 2 2 2 2 2 2 2 2 2 2
left_child=3 17 5 24 -5 12 -4 -6 10 -10 -7 15 -3 -11 -12 16 29 18 20 -19 21 22 -2 -24 -1 -26 -16 28 -15 -9
right_child=1 2 6 4 7 8 -8 11 9 13 14 -13 -14 27 26 -17 -18 19 -20 -21 -22 -23 23 -25 25 -27 -28 -29 -30 -31
leaf_value=0.039381190675838174 0.15627397007584926 0.32696666615815112 0.23692302517882402 0.076577681343980242 0.2521051481895818 0.24754585198718965 0.43060604912814882 0.13769195394764824 0.25070363140006779 0.033548601727591582 -0.0087111404087515804 0.19599056435069551 0.17900098111810026 0.12922716981573068 0.096687119244832448 0.19595931609845535 0.058171564460229322 0.2323669217678645 -0.048844258886615227 0.091904314277884702 0.015357038369593359 0.19128669556205069 0.1207912116830446 0.026575694076329912 -0.023582353097239939 0.064708565816172708 0.17481960872481239 0.08923431388121579 0.26658431383800241 0.10094537432317581
leaf_weight=288 29 34 31 1432 24 26 23 144 88 28 22 48 30 21 107 28 149 23 21 25 22 42 29 58 21 2668 34 20 20 529
leaf_count=288 29 34 31 1432 24 26 23 144 88 28 22 48 30 21 107 28 149 23 21 25 22 42 29 58 21 2668 34 20 20 529
internal_value=0.0858782 0.155069 0.184093 0.0742803 0.0902717 0.167098 0.319418 0.11154 0.151271 0.185488 0.119227 0.107784 0.257608 0.121006 0.0987592 0.102803 0.0996293 0.0986526 0.0841913 0.159209 0.0997121 0.111458 0.0825541 0.0579809 0.0616355 0.064019 0.115528 0.16115 0.196231 0.108808
internal_weight=0 733 484 5331 2354 430 54 922 366 177 189 898 64 89 163 850 822 249 201 48 180 158 116 87 2977 2689 141 61 41 673
internal_count=6064 733 484 5331 2354 430 54 922 366 177 189 898 64 89 163 850 822 249 201 48 180 158 116 87 2977 2689 141 61 41 673
is_linear=0
shrinkage=1


Tree=1
num_leaves=31
num_cat=0
split_feature=5 9 9 5 5 6 8 9 1 10 5 8 2 11 6 10 1 8 8 11 10 1 9 7 1 8 1 7 8 5
split_gain=1522.95 436.368 427.905 322.08 299.538 246.451 141.272 134.914 127.815 280.964 146.714 181.355 114.599 178.17 96.3079 77.3859 150.629 120.115 124.354 58.1592 146.659 79.5559 63.4473 66.6213 91.2897 88.4462 70.464 75.8638 76.4235 65.5824
threshold=2.2050000000000005 0.17432291255824414 0.1994436358904195 5.705000000000001 0.81500000000000006 75.921000000000006 -0.32789576105743373 -12.858812405463631 824.97000000000014 69.211714431158967 3.3700000000000006 42.282865938470486 2321.5250000000005 80.603253201194164 718.31300000000022 7.5449392569572131 824.97000000000014 26.623050438923887 10.799054462449876 11.982554923631502 -0.88296425448346805 349.22500000000008 1.6387158868290992 879.95200000000011 1842.6600000000003 -7.4711997377027606 658.0100000000001 552.88200000000018 9.8599620557245373 1.6250000000000002
decision_type=2 2 2 2 2 2 2 2 2 2 2 2 2 2 2 2 2 2 2 2 2 2 2 2 2 2 2 2 2 2
left_child=2 7 -1 6 -4 -6 -3 -2 14 10 11 -10 13 19 -8 -9 17 18 -17 20 -7 -21 -23 25 -25 -24 27 28 -27 -28
right_child=1 3 4 -5 5 12 8 15 9 -11 -12 -13 -14 -15 -16 16 -18 -19 -20 21 -22 22 23 24 -26 26 29 -29 -30 -31
leaf_value=-0.022058701915783713 -0.084135291340450447 0.172798612984744 -0.0073031402735438304 0.2218624518701324 0.16739809424165758 0.14490603134212451 0.063666900981321828 0.10389322847127916 0.21263270441974913 -0.016818143320935116 0.27386193625305011 0.031016437461841163 0.083458532442061889 -0.069279808406200669 -0.048706539246169009 -0.085012465041308174 0.11317956783875292 -0.12768430076539516 0.065240999301895503 -0.060883668347472143 0.027968067619168053 -0.018137762684594185 0.14203660035133361 0.0061213619152180217 0.096698542948692082 0.12310586428648095 0.037167015778166911 -0.052745017866254788 -0.0058483491893167854 0.1557139176130295
leaf_weight=3058 30 44 1565 54 31 33 143 30 28 28 23 27 74 54 22 21 28 20 40 31 143 85 25 271 31 20 28 30 27 20
leaf_count=3058 30 44 1565 54 31 33 143 30 28 28 23 27 74 54 22 21 28 20 40 31 143 85 25 271 31 20 28 30 27 20
internal_value=0 0.0785652 -0.00955922 0.10904 0.00592838 0.0288601 0.0896985 0.0120264 0.0762063 0.119048 0.16782 0.123476 0.023935 0.0184153 0.0486838 0.0327807 0.0132084 -0.0213495 0.0135144 0.0247802 0.0498939 0.0169985 0.0214945 0.0289475 0.015419 0.0561849 0.0390145 0.00937482 0.0490258 0.0865616
internal_weight=0 538 5526 369 2468 903 315 169 271 106 78 55 872 798 165 139 109 81 61 744 176 568 537 452 302 150 125 77 47 48
internal_count=6064 538 5526 369 2468 903 315 169 271 106 78 55 872 798 165 139 109 81 61 744 176 568 537 452 302 150 125 77 47 48
is_linear=0
shrinkage=0.05


Tree=2
num_leaves=31
num_cat=0
split_feature=5 9 5 9 5 8 4 11 4 8 11 4 5 9 11 1 11 9 1 4 0 4 7 8 4 5 1 9 1 4
split_gain=1382.27 386.856 361.816 351.824 225.216 208.279 178.808 163.399 135.716 240.246 142.882 132.371 107.076 92.6925 92.2862 86.2913 110.388 76.4743 75.1734 151.632 85.5939 68.3747 93.1496 112.654 85.9021 65.9884 57.0916 57.0056 58.6346 54.1491
threshold=1.8650000000000004 0.17432291255824414 5.705000000000001 0.1994436358904195 0.72500000000000009 1.4567895303888039 639011.50000000012 2.2050736072388433 383028.50000000006 42.282865938470486 5.2178030909960489 2093080.5000000002 2.4850000000000008 3.4922180411752284 41.99471332626878 2602.0450000000005 55.735441628548237 2.16456543613047 1255.9650000000004 733414.00000000012 1624.6250000000002 171068.50000000003 911.57650000000024 -0.24491773538523623 469749.00000000006 3.9450000000000007 1324.6200000000001 -15.959775178618189 44.115000000000002 1451247.0000000002
decision_type=2 2 2 2 2 2 2 2 2 2 2 2 2 2 2 2 2 2 2 2 2 2 2 2 2 2 2 2 2 2
left_child=3 18 5 27 -5 14 -4 -6 10 -10 -7 15 -11 17 -3 16 -9 -12 19 21 -20 -2 23 -23 -25 -15 -14 -1 -29 -30
right_child=1 2 6 4 7 8 -8 11 9 12 13 -13 26 25 -16 -17 -18 -19 20 -21 -22 22 -24 24 -26 -27 -28 28 29 -31
leaf_value=-0.043069250807295456 -0.048142777838640745 0.19334693421488225 0.13239944269580226 -0.0084703604035325317 0.16457042356953025 0.1434543983929831 0.31639831001343938 0.021186817845826947 0.14789845584410019 -0.049891972789607414 0.0033939827866149401 0.10087157278430824 0.027903100166521557 0.020530811750019591 0.078214891999959957 0.10186277733986832 -0.026350325513506096 -0.1057833818151899 0.13791131939253082 -0.12848692231235051 0.0042584864646196367 0.15447954867966474 -0.065801393918015746 -5.8674708574633065e-05 0.10973934814657854 0.12351274202976908 0.12625886368751527 -0.10288461586903959 -0.020115985267785793 0.026796081342867446
leaf_weight=288 36 46 31 1432 20 23 23 677 87 28 53 48 36 60 28 28 149 23 23 21 25 20 22 79 23 21 25 21 2605 63
leaf_count=288 36 46 31 1432 20 23 23 677 87 28 53 48 36 60 28 28 149 23 23 21 25 20 22 79 23 21 25 21 2605 63
internal_value=0 0.0627244 0.0887781 -0.0105056 0.0039393 0.0734583 0.210769 0.0232133 0.057593 0.0888135 0.0270663 0.020079 0.0310563 0.0100158 0.149783 0.015538 0.0126117 -0.0296465 0.0120819 -0.00134346 0.0683005 0.0134899 0.0288981 0.0459751 0.0246997 0.0472298 0.0682128 -0.0219276 -0.0196633 -0.0190082
internal_weight=0 733 484 5331 2354 430 54 922 356 176 180 902 89 157 74 854 826 76 249 201 48 180 144 122 102 81 61 2977 2689 2668
internal_count=6064 733 484 5331 2354 430 54 922 356 176 180 902 89 157 74 854 826 76 249 201 48 180 144 122 102 81 61 2977 2689 2668
is_linear=0
shrinkage=0.05


Tree=3
num_leaves=31
num_cat=0
split_feature=5 9 5 9 5 8 4 11 4 8 11 4 11 4 5 1 11 1 4 11 9 4 0 7 8 8 1 9 1 6
split_gain=1247.5 349.137 326.539 317.522 203.257 189.721 161.374 148.603 126.124 230.394 160.538 120.443 114.017 105.513 96.6363 78.5403 99.5887 67.844 136.848 78.9194 66.6438 93.5349 72.8802 58.8181 74.0473 95.3559 57.6486 55.0114 93.7367 71.0242
threshold=1.8650000000000004 0.17432291255824414 5.705000000000001 0.1994436358904195 0.72500000000000009 -0.32789576105743373 639011.50000000012 2.3373941377310348 383028.50000000006 42.282865938470486 5.2178030909960489 2093080.5000000002 41.432406478069105 142503.00000000003 2.4850000000000008 2602.0450000000005 75.205734051593183 1255.9650000000004 733414.00000000012 82.958601430655875 -0.96952861337034635 171068.50000000003 777.08000000000004 213.53050000000005 -0.15377553780814415 4.977859568162132 344.4500000000001 -1.3176901311990388 528.03000000000009 512.20100000000014
decision_type=2 2 2 2 2 2 2 2 2 2 2 2 2 2 2 2 2 2 2 2 2 2 2 2 2 2 2 2 2 2
left_child=3 17 5 27 -5 12 -4 -6 10 -10 -7 15 -3 -12 -11 16 23 18 20 -19 21 -2 26 24 -9 -26 -23 28 29 -1
right_child=1 2 6 4 7 8 -8 11 9 14 13 -13 -14 -15 -16 -17 -18 19 -20 -21 -22 22 -24 -25 25 -27 -28 -29 -30 -31
leaf_value=-0.042947020309894397 -0.091484480023384107 0.21189635374090254 0.12577946981595409 -0.0080468422739588333 0.14483929378911853 0.14287433458062321 0.30057840642073885 0.13478505413979291 0.14359570115974005 -0.047397374155532038 -0.092753497849811212 0.095827992058669542 0.078161177709698687 0.024978939156503756 0.064802198368506356 0.096769639024777088 -0.047287249748566844 0.14074412196874619 -0.1220625788682983 0.010700668381260974 0.067963283803934849 -0.024645905882120137 -0.052946948285760555 0.0099916637341206892 -0.0031473859999473991 0.087230129936274062 0.065949896498883179 -0.012172511134477176 -0.020311446624103904 -0.13967669496312737
leaf_weight=371 25 34 31 1432 24 26 23 20 88 28 22 48 30 141 61 28 66 20 21 28 42 25 29 612 77 47 59 1135 1451 20
leaf_count=371 25 34 31 1432 24 26 23 20 88 28 22 48 30 141 61 28 66 20 21 28 42 25 29 612 77 47 59 1135 1451 20
internal_value=0 0.0595882 0.0843392 -0.00998033 0.00374234 0.0697854 0.200231 0.0220527 0.0558973 0.0862273 0.027493 0.018771 0.149208 0.00908867 0.0295035 0.0144196 0.0116145 0.0114778 -0.00127629 0.0648854 0.0128154 -0.00396868 0.0153932 0.0167567 0.0455081 0.0311086 0.0389869 -0.0208312 -0.0261666 -0.0478948
internal_weight=0 733 484 5331 2354 430 54 922 366 177 189 898 64 163 89 850 822 249 201 48 180 138 113 756 144 124 84 2977 1842 391
internal_count=6064 733 484 5331 2354 430 54 922 366 177 189 898 64 163 89 850 822 249 201 48 180 138 113 756 144 124 84 2977 1842 391
is_linear=0
shrinkage=0.05


Tree=4
num_leaves=31
num_cat=0
split_feature=5 9 5 9 5 0 8 4 4 8 4 5 9 1 7 1 1 1 8 9 1 0 4 0 5 10 0 9 1 4
split_gain=1125.87 315.097 294.701 286.563 184.095 194.521 171.223 145.64 114.068 217.683 108.135 94.5066 71.2098 71.0566 70.8471 80.6385 61.6778 61.2292 125.507 132.162 114.235 136.151 98.3429 72.4277 56.8192 51.9944 63.2415 51.5808 53.2071 48.6563
threshold=1.8650000000000004 0.17432291255824414 5.705000000000001 0.1994436358904195 0.81500000000000006 78.25500000000001 -0.32789576105743373 639011.50000000012 370711.50000000006 47.943049349375208 2093080.5000000002 2.4850000000000008 6.355516680543583 1158.0800000000002 213.53050000000005 92.945000000000007 2565.3150000000005 1255.9650000000004 44.926418694972376 -1.4697975328917636 332.90000000000003 896.88000000000011 363632.00000000006 1624.6250000000002 2.2050000000000005 41.005030488344595 133.00000000000003 -15.959775178618189 44.115000000000002 1451247.0000000002
decision_type=2 2 2 2 2 2 2 2 2 2 2 2 2 2 2 2 2 2 2 2 2 2 2 2 2 2 2 2 2 2
left_child=3 17 6 27 -5 -6 12 -4 25 24 14 -11 -3 -13 15 -7 -16 18 19 20 -2 22 -22 -19 -10 26 -8 -1 -29 -30
right_child=1 2 7 4 5 10 8 -9 9 11 -12 13 -14 -15 16 -17 -18 23 -20 -21 21 -23 -24 -25 -26 -27 -28 28 29 -31
leaf_value=-0.039900214709309191 -0.1250481866300106 0.19448877607937903 0.1194904875911532 -0.0063729461604512087 0.15034116175154161 -0.037715889310294931 0.079664277980724979 0.28554947214282078 0.059098595042120332 -0.062781760236248374 0.091036594193428758 -0.0069183707523804445 0.089006403589155528 0.10360510492076476 0.0034233812591382817 0.068311362103895129 0.092747631669044497 0.12567476792180018 -0.1200710914283991 0.079215272401387871 -0.0017993595058980742 -0.097482939514331526 0.11404153543214005 0.0027302703559398652 0.1499545479311219 0.092008057929575449 -0.0010515123525979071 -0.096911941468715679 -0.018061843590789446 0.026407249821793467
leaf_weight=288 20 32 31 1565 29 22 30 23 22 24 48 26 32 33 573 97 20 23 20 52 57 25 27 25 79 25 127 21 2605 63
leaf_count=288 20 32 31 1565 29 22 30 23 22 24 48 26 32 33 573 97 20 23 20 52 57 25 27 25 79 25 127 21 2605 63
internal_value=0 0.0566088 0.0801223 -0.00948131 0.00355522 0.023248 0.0662961 0.190219 0.0531024 0.0808636 0.0183984 0.0208714 0.141748 0.0548998 0.0135014 0.0487097 0.006436 0.0109039 -0.00121247 0.0119211 -0.0152053 0.0049494 0.0354352 0.0616412 0.130164 0.0250362 0.0143719 -0.0197897 -0.0176358 -0.0170118
internal_weight=0 733 484 5331 2354 789 430 54 366 184 760 83 64 59 712 119 593 249 201 181 129 109 84 48 101 182 157 2977 2689 2668
internal_count=6064 733 484 5331 2354 789 430 54 366 184 760 83 64 59 712 119 593 249 201 181 129 109 84 48 101 182 157 2977 2689 2668
is_linear=0
shrinkage=0.05


Tree=5
num_leaves=31
num_cat=0
split_feature=5 4 10 8 11 4 5 5 0 1 7 11 1 0 1 6 11 1 0 0 4 0 4 1 10 5 11 5 1 10
split_gain=1223.26 319.736 247.655 189.573 279.875 233.611 176.959 154.787 263.642 157.717 177.067 127.186 175.102 238.084 165.244 163.916 106.564 98.1413 243.227 100.134 94.4173 154.528 77.2525 76.8403 68.1392 81.7212 66.991 64.4784 97.4192 64.3381
threshold=2.3950000000000005 1119770.0000000002 69.211714431158967 0.5051973356092746 37.40455306705767 419640.00000000006 4.1900000000000004 0.9850000000000001 83.435000000000016 2418.3900000000008 2249.4300000000007 40.247532958445696 1578.9900000000002 1667.8400000000004 1710.2450000000001 1515.8760000000002 78.305346688273275 1225.1650000000002 1215.9550000000002 1252.4300000000001 119346.50000000001 178.96000000000004 864939.00000000012 769.47500000000002 -0.22694449152945922 1.0350000000000004 4.0696917930679524 1.6950000000000001 430.05000000000007 -42.704426340295235
decision_type=2 2 2 2 2 2 2 2 2 2 2 2 2 2 2 2 2 2 2 2 2 2 2 2 2 2 2 2 2 2
left_child=7 2 3 4 -2 20 -3 -1 -9 10 11 24 15 -14 -15 17 -16 18 29 -19 -5 -22 -7 -23 25 -10 -27 -28 -29 -13
right_child=1 6 -4 5 -6 22 -8 8 9 -11 -12 12 13 14 16 -17 -18 19 -20 -21 21 23 -24 -25 -26 26 27 28 -30 -31
leaf_value=-0.011924166054192494 0.30512604513205588 0.12461309941485524 -0.081602501483826806 -0.061510626718934092 0.040609829798340796 0.13367208501162089 0.29325405259927118 0.14296647463526044 -0.054510807902330455 0.099258083703794658 -0.13374238231529792 0.02472482355607843 0.12885634789154643 -0.11079651006031782 0.06822617628564269 -0.16479417975668029 -0.026407670490443708 0.1019612501996259 -0.20385282517156822 -0.01339939079359816 0.15223940226435662 0.0015811529010534286 0.025247875340282916 0.10763263970613479 0.0064946765287436153 -0.038148679838050162 0.042373017546393582 0.034898080712273009 0.18545667596838691 -0.043932032051969529
leaf_weight=4209 20 60 29 28 20 92 21 35 21 42 24 44 42 30 59 23 60 24 22 87 25 117 20 20 475 20 148 21 22 152
leaf_count=4209 20 60 29 28 20 92 21 35 21 42 24 44 42 30 59 23 60 24 22 87 25 117 20 20 475 20 148 21 22 152
internal_value=0 0.0783352 0.0586856 0.0705814 0.172868 0.0570335 0.168335 -0.00719768 0.00752754 0.00392544 0.000782606 0.00336549 -0.0148334 0.0237118 -0.00592625 -0.0357485 0.0205116 -0.0267271 -0.0462135 0.0115435 0.0232702 0.0379237 0.114311 0.0170631 0.0173428 0.0395535 0.0489154 0.058032 0.111928 -0.0285193
internal_weight=0 452 371 342 40 302 81 5560 1351 1316 1274 1250 543 191 149 352 119 329 218 111 190 162 112 137 707 232 211 191 43 196
internal_count=6012 452 371 342 40 302 81 5560 1351 1316 1274 1250 543 191 149 352 119 329 218 111 190 162 112 137 707 232 211 191 43 196
is_linear=0
shrinkage=0.05


Tree=6
num_leaves=31
num_cat=0
split_feature=5 9 8 4 5 9 11 1 5 11 9 0 4 11 1 5 0 1 11 4 11 8 7 4 11 1 5 9 9 4
split_gain=1106.12 421.516 265.631 336.273 338.095 248.726 208.338 163.655 158.521 129.968 120.126 165.888 111.022 172.028 119.295 169.309 94.6082 108.123 122.593 155.827 82.3517 64.2829 155.811 98.1959 60.009 57.2491 54.744 50.0676 44.3106 40.1589
threshold=2.2250000000000005 -0.74607507822451768 0.5051973356092746 762557.50000000012 4.2250000000000005 0.10845273569347266 34.35217165445102 1158.0800000000002 0.70500000000000007 43.92439513961255 -5.8267887746659843 387.37500000000006 267684.00000000006 14.343301970863243 398.77500000000003 4.0850000000000009 119.15000000000002 2602.0450000000005 81.724465609054349 2093080.5000000002 56.267094484917621 1.0493478648507522 879.95200000000011 129609.50000000001 5.2178030909960489 1158.0800000000002 1.3250000000000004 3.2696824599095318 1.2176311410235725 2093080.5000000002
decision_type=2 2 2 2 2 2 2 2 2 2 2 2 2 2 2 2 2 2 2 2 2 2 2 2 2 2 2 2 2 2
left_child=5 7 6 9 20 29 -3 10 -7 12 -2 -12 24 -14 -15 -16 -10 18 19 21 -5 22 23 -18 -4 -24 -20 -25 -26 -1
right_child=1 2 3 4 -6 8 -8 -9 16 -11 11 -13 13 14 15 -17 17 -19 26 -21 -22 -23 25 27 28 -27 -28 -29 -30 -31
leaf_value=-0.016591437171976111 -0.13639280779351448 0.32379139728844164 0.089128299700942909 0.15183788133841572 0.29907321816888349 -0.0065499426356351517 0.11927892276735018 0.078696975624188786 0.06105809485445083 -0.050742831031481431 -0.088916638082471397 0.090894366306779176 0.21972421400603795 -0.030190615957746136 0.04374788084791767 0.1864802025378712 0.026971175559685701 0.094030286911875011 -0.1202208978974301 0.11814041897654533 0.041742346435785296 -0.00031138531357904409 -0.026487630554898219 0.17098576122522355 0.04317991182740246 0.03099647223852672 -0.02091974545802389 0.079390428436769023 -0.038022563801634879 -0.07473573153217633
leaf_weight=2937 29 20 22 33 29 1454 33 32 118 30 29 23 21 26 63 31 61 40 23 35 35 515 99 25 28 77 35 37 42 30
leaf_count=2937 29 20 22 33 29 1454 33 32 118 30 29 23 21 26 63 31 61 40 23 35 35 515 99 25 28 77 35 37 42 30
internal_value=0 0.0685334 0.0919459 0.0765601 0.156132 -0.0073696 0.196453 -0.0170363 0.0041848 0.0472125 -0.0548568 -0.00938485 0.0598248 0.0877039 0.0646004 0.0908192 0.0188405 0.01358 0.010032 0.0148367 0.0951711 0.0103949 0.0288354 0.0720108 0.0170969 -0.00133834 -0.0602978 0.116324 -0.00554157 -0.0171793
internal_weight=0 526 413 360 97 5486 53 113 2519 263 81 52 233 141 120 94 1065 947 907 849 68 814 299 123 92 176 58 62 70 2967
internal_count=6012 526 413 360 97 5486 53 113 2519 263 81 52 233 141 120 94 1065 947 907 849 68 814 299 123 92 176 58 62 70 2967
is_linear=0
shrinkage=0.05


Tree=7
num_leaves=31
num_cat=0
split_feature=5 9 9 8 4 5 4 5 11 1 4 6 1 7 10 11 4 11 5 8 10 9 4 10 9 11 8 9 6 11
split_gain=999.075 322.101 258.952 245.31 314.932 275.607 193.357 172.982 147.608 134.485 104.037 98.3705 89.7966 78.621 74.7454 75.1921 63.7029 100.069 57.351 76.7067 56.2821 53.9215 52.4418 56.8572 51.174 53.5334 50.4227 48.2942 47.0945 46.9773
threshold=2.3950000000000005 -0.74607507822451768 0.10845273569347266 0.5051973356092746 762557.50000000012 4.2250000000000005 762557.50000000012 0.70500000000000007 43.92439513961255 811.62000000000012 2561114.0000000005 110.31000000000002 746.95500000000004 2559.0580000000004 8.53307340808791 74.46662614741318 119346.50000000001 12.074547788886985 2.0250000000000004 2.6938518493013963 35.704378796242118 -4.6982720513427063 383028.50000000006 25.462973376849277 12.68709210989382 26.878381774010482 -0.32789576105743373 0.7937812199476727 2369.9580000000005 12.255343579724267
decision_type=2 2 2 2 2 2 2 2 2 2 2 2 2 2 2 2 2 2 2 2 2 2 2 2 2 2 2 2 2 2
left_child=2 9 -1 6 8 20 -3 -4 12 21 11 27 16 14 15 18 -5 -18 24 -20 -6 -2 -19 -24 25 26 29 -9 -16 -13
right_child=1 3 7 4 5 -7 -8 10 -10 -11 -12 13 -14 -15 28 -17 17 22 19 -21 -22 -23 23 -25 -26 -27 -28 -29 -30 -31
leaf_value=-0.016504193647762757 -0.10899848841406681 0.31905358701944353 -0.0062224446366088877 -0.027520923746319922 0.14815828343853354 0.28411956059521642 0.099191760718822478 0.026459171978193658 -0.08304366938769818 0.067871039842858041 0.11511693242937326 0.12103876869963565 0.13349602334201335 0.092530875851710645 -0.0034007590533314371 -0.045327699315967043 0.12989359005457826 0.00040735089661259397 0.15256127607077363 0.014081372283399105 0.051090160757303243 -0.013721583038568498 0.11377756864793841 0.012431756079196931 0.076351863795366043 -0.0043785784003400321 0.015089280791586468 0.097774147593750152 -0.080615958003770749 0.040068706402118195
leaf_weight=2991 27 20 1454 26 28 29 20 43 20 34 28 23 34 30 331 40 36 57 20 20 32 33 31 25 39 185 201 53 21 81
leaf_count=2991 27 20 1454 26 28 29 20 43 20 34 28 23 34 30 331 40 36 57 20 20 32 33 31 25 39 185 201 53 21 81
internal_value=0 0.0707948 -0.00650382 0.092423 0.0777438 0.157559 0.209123 0.00513927 0.0467237 -0.0115761 0.0199554 0.0175041 0.0591417 0.0128226 0.0103343 0.0209357 0.0446957 0.0572972 0.0255939 0.0833213 0.0963886 -0.0565962 0.0341692 0.0685339 0.0212289 0.0168416 0.0297128 0.065831 -0.00800735 0.0579755
internal_weight=0 452 5560 358 318 89 40 2569 229 94 1115 1087 209 991 961 609 175 149 569 40 60 60 113 56 529 490 305 96 352 104
internal_count=6012 452 5560 358 318 89 40 2569 229 94 1115 1087 209 991 961 609 175 149 569 40 60 60 113 56 529 490 305 96 352 104
is_linear=0
shrinkage=0.05


Tree=8
num_leaves=31
num_cat=0
split_feature=5 9 9 4 10 5 11 1 4 10 6 5 1 11 6 10 0 1 9 3 0 1 5 4 0 11 1 5 11 5
split_gain=906.044 305.881 287.342 241.392 323.979 218.509 136.021 103.64 84.7403 78.3538 87.4557 61.9282 71.2466 103.836 69.5725 60.9739 59.9449 56.5521 51.1416 134.988 107.071 54.0884 49.9753 46.2228 66.9056 63.0214 46.5407 46.1777 65.5897 53.6991
threshold=3.3350000000000004 -0.70535527608688031 0.45332635161164142 1119770.0000000002 8.2536541438506372 1.2750000000000001 43.92439513961255 412.4550000000001 2782675.5000000005 -34.086639776314676 94.134000000000015 0.6150000000000001 2602.0450000000005 81.724465609054349 871.41500000000019 1.0000000180025095e-35 347.98500000000007 910.0200000000001 -1.3176901311990388 128.99000000000004 105.7 86.015000000000015 4.5850000000000009 278859.50000000006 831.24500000000012 85.809650825467983 910.0200000000001 0.41500000000000004 43.030103425091248 1.1950000000000001
decision_type=2 2 2 2 2 2 2 2 2 2 2 2 2 2 2 2 2 2 2 2 2 2 2 2 2 2 2 2 2 2
left_child=2 -2 18 4 16 11 7 -6 9 -7 -11 -4 13 14 15 -13 -3 -16 19 20 21 -1 -9 25 -25 -21 -26 -20 29 -29
right_child=1 3 5 -5 6 8 -8 22 -10 10 -12 12 -14 -15 17 -17 -18 -19 27 23 -22 -23 -24 24 26 -27 -28 28 -30 -31
leaf_value=-0.095163028816814016 -0.029056447833066896 0.24724039882421495 -0.0077821637687991926 0.23466753730097334 0.014514133853967801 0.10342176850352969 -0.07190619595348835 0.080143793558161106 0.12878272918903308 0.11570812910795213 0.021724531323808721 0.053758728930226242 0.06632530504354725 -0.087626636397492685 -0.081467740009115497 0.0075647966522309519 0.13830013521339582 0.001220611030327936 -0.014768742135404446 -0.02258630039460284 -0.17348091217378778 0.015824634546325319 0.18152017757296562 0.059526722300249871 -0.082111362813283573 -0.096295805716266239 -0.010119600855370066 0.0014426952392555946 -0.043067145693713609 0.040734372859278167
leaf_weight=23 42 28 1077 37 43 35 20 31 23 26 516 134 54 28 22 153 23 344 788 869 24 21 20 34 23 30 938 430 67 109
leaf_count=23 42 28 1077 37 43 35 20 31 23 26 516 134 54 28 22 153 23 344 788 869 24 21 20 34 23 30 938 430 67 109
internal_value=0 0.0937164 -0.00464991 0.119243 0.0933605 0.00851383 0.0464986 0.0716912 0.0346667 0.0309151 0.026233 -0.000146074 0.0110431 0.00665953 0.0107024 0.0291327 0.19811 -0.00374973 -0.0141109 -0.0193135 -0.088529 -0.0421916 0.119899 -0.0168285 -0.00940386 -0.025046 -0.0118426 -0.00678828 0.00358896 0.00938851
internal_weight=0 244 5768 202 165 2412 114 94 600 577 542 1812 735 681 653 287 51 366 3356 1962 68 44 51 1894 995 899 961 1394 606 539
internal_count=6012 244 5768 202 165 2412 114 94 600 577 542 1812 735 681 653 287 51 366 3356 1962 68 44 51 1894 995 899 961 1394 606 539
is_linear=0
shrinkage=0.05


Tree=9
num_leaves=31
num_cat=0
split_feature=5 9 5 8 9 11 5 6 1 10 4 5 2 1 4 4 11 11 10 11 11 1 11 5 8 1 4 11 5 10
split_gain=823.265 329.641 233.425 264.921 180.289 167.212 148.977 145.607 131.975 127.206 186.451 118.848 107.83 141.154 85.9312 82.0632 98.31 82.9835 131.288 76.3935 75.985 67.4211 64.165 92.7446 76.168 63.6313 57.1025 48.0474 47.6318 47.1182
threshold=2.2050000000000005 -0.74607507822451768 6.495000000000001 0.58344876308861171 -0.85728212259301528 34.35217165445102 0.88500000000000012 110.31000000000002 1158.0800000000002 69.211714431158967 419640.00000000006 4.7950000000000008 725.62500000000011 344.4500000000001 25411.000000000004 2093080.5000000002 75.205734051593183 43.030103425091248 3.8352432148360016 3.9535335242662462 3.1117082817900092 769.47500000000002 29.435943890398637 3.2400000000000007 46.479268648941577 1186.8850000000002 5202.5000000000009 5.2178030909960489 0.34500000000000003 2.2644103122167647
decision_type=2 2 2 2 2 2 2 2 2 2 2 2 2 2 2 2 2 2 2 2 2 2 2 2 2 2 2 2 2 2
left_child=4 8 3 5 19 -3 28 14 12 10 21 22 13 -2 20 17 -17 18 -9 26 -8 27 -12 24 -24 -19 -1 -5 -6 -29
right_child=1 2 -4 9 6 -7 7 15 -10 -11 11 -13 -14 -15 -16 16 -18 25 -20 -21 -22 -23 23 -25 -26 -27 -28 29 -30 -31
leaf_value=-0.028863662332927777 -0.09226189826925596 0.28137359392518796 0.20695411395845992 0.080402025021612644 -0.013589872028266468 0.10089142187075183 0.059637302768727141 0.041967228561941954 0.068644253994253543 -0.046542644277215009 0.1582487592878549 0.20858699744162351 -0.13163983151316644 0.066603391643228205 0.013862584140522154 0.12973938979858143 0.0027719860275586448 -0.064897764717990705 -0.0087141339839107643 -0.015605364212516425 0.17416443079710009 0.10161235773563385 0.070217487267379114 0.12105599379166961 -0.056617844030261044 -0.0032426598553678822 -0.10568460855723881 -0.070029355175793173 0.00054320902821959486 0.014111150321409558
leaf_weight=59 27 21 33 22 1045 33 30 272 33 30 23 23 27 29 33 31 30 55 241 2050 28 25 29 40 20 175 41 20 1388 99
leaf_count=59 27 21 33 22 1045 33 30 272 33 30 23 23 27 29 33 31 30 55 241 2050 28 25 29 40 20 175 41 20 1388 99
internal_value=0 0.0586364 0.0793312 0.0683921 -0.00640162 0.171079 0.000889112 0.0183312 -0.0159361 0.0516396 0.0614252 0.105062 -0.0495644 -0.00999237 0.0782768 0.0115463 0.0672964 0.00696923 0.0181579 -0.017687 0.114926 0.0259372 0.0838028 0.0645639 0.018448 -0.0179863 -0.0603603 0.0125196 -0.0055271 -3.01111e-05
internal_weight=0 534 418 385 5478 54 3328 895 116 331 301 135 83 56 91 804 61 743 513 2150 58 166 112 89 49 230 100 141 2433 119
internal_count=6012 534 418 385 5478 54 3328 895 116 331 301 135 83 56 91 804 61 743 513 2150 58 166 112 89 49 230 100 141 2433 119
is_linear=0
shrinkage=0.05


Tree=10
num_leaves=31
num_cat=0
split_feature=5 9 4 8 9 6 5 4 5 11 1 8 0 9 0 1 4 1 9 6 1 8 11 4 8 7 6 1 8 1
split_gain=862.915 287.213 236.036 181.688 143.072 139.829 135.582 132.217 219.679 103.828 100.434 102.649 85.8001 80.2533 94.5453 144.585 78.7708 73.4731 71.1701 69.4063 57.5436 50.7149 49.6922 85.6807 57.0752 227.28 49.1597 61.4988 59.2471 45.9594
threshold=2.3950000000000005 -11.163634351846925 537541.00000000012 -0.40455526744163695 -0.81314616147981911 476.37700000000001 0.70500000000000007 479953.50000000006 5.9250000000000016 2.3373941377310348 95.635000000000005 -3.1626162742356878 105.7 17.81821569392379 1270.9550000000002 1108.7950000000003 400597.00000000006 197.86500000000004 -1.6724712264090786 210.11800000000002 2565.3150000000005 1.7079962039968566 75.205734051593183 2093080.5000000002 -1.7496959813661659 894.4235000000001 542.28600000000017 658.0100000000001 -6.2922626383470961 1268.6050000000002
decision_type=2 2 2 2 2 2 2 2 2 2 2 2 2 2 2 2 2 2 2 2 2 2 2 2 2 2 2 2 2 2
left_child=4 -2 3 -3 10 -4 -6 8 16 21 11 -1 -12 14 15 -7 -5 18 -14 -19 22 -8 23 24 25 26 28 -28 -11 -27
right_child=1 2 5 7 6 13 9 -9 -10 20 12 -13 17 -15 -16 -17 -18 19 -20 -21 -22 -23 -24 -25 -26 29 27 -29 -30 -31
leaf_value=-0.16743857697361994 -0.097693083867430697 0.19111374566564338 0.24329305489857994 0.012613109225226987 -0.006336679030524605 0.077661008899315043 0.038355507240408947 -0.082566110180182894 0.18544530653953553 0.16276737698193255 0.090080587565898901 -0.031500618568644292 -0.11192804576647986 0.18517875751623741 0.017612626447397122 0.2235265050245368 0.09665161768960602 0.080792378280311827 -0.024531225458662393 -0.012811034387692627 0.072330901144366508 0.14960679709911348 -0.023195546610692803 0.092312690883762011 0.0034772578425239179 -0.026580756926780632 -0.01989385783672333 0.085151214226100003 0.067870869760793692 0.033434520543298943
leaf_weight=21 25 20 21 155 2080 65 21 22 25 29 20 41 36 26 34 23 34 20 66 2022 38 20 104 33 778 116 22 38 38 44
leaf_count=21 25 20 21 155 2080 65 21 22 25 29 20 41 36 26 34 23 34 20 66 2022 38 20 104 33 778 116 22 38 38 44
internal_value=0 0.0670056 0.0766938 0.0464185 -0.0049673 0.122554 0.00154429 0.0341562 0.0461557 0.0143409 -0.014799 -0.0775441 -0.0130014 0.105423 0.0884254 0.115785 0.0277311 -0.0139629 -0.0553772 -0.0118943 0.0117525 0.0926244 0.00983733 0.0129661 0.0105075 0.0295651 0.0795073 0.0466347 0.108945 -0.0100766
internal_weight=0 450 425 256 5587 169 3361 236 214 1281 2226 62 2164 148 122 88 189 2144 102 2042 1240 41 1202 1098 1065 287 127 60 67 160
internal_count=6037 450 425 256 5587 169 3361 236 214 1281 2226 62 2164 148 122 88 189 2144 102 2042 1240 41 1202 1098 1065 287 127 60 67 160
is_linear=0
shrinkage=0.05


Tree=11
num_leaves=31
num_cat=0
split_feature=5 5 7 4 10 10 8 10 6 4 11 11 4 4 7 8 1 1 10 3 4 4 4 5 10 4 1 1 11 7
split_gain=784.366 237.727 199.872 234.405 148.261 116.704 150.793 113.812 95.2829 92.5404 134.758 99.6276 82.5198 79.957 85.7231 101.427 92.6015 87.3987 69.5196 69.4112 68.4719 65.4798 59.2942 65.7193 58.0136 72.3696 56.1537 48.4394 88.6768 82.362
threshold=3.5000000000000004 1.6950000000000001 122.71100000000001 537541.00000000012 -42.704426340295235 7.5449392569572131 18.424733805079654 52.517223531924614 476.37700000000001 171068.50000000003 4.9420808687528144 75.205734051593183 452645.00000000006 1229452.0000000002 1028.3060000000003 7.0489956424582099 1145.7000000000003 646.1500000000002 3.8352432148360016 1106.3600000000004 485718.00000000006 224167.50000000003 1451247.0000000002 1.6050000000000002 18.157720170194363 1119770.0000000002 1679.5550000000001 44.115000000000002 0.95677825657213611 50.085000000000008
decision_type=2 2 2 2 2 2 2 2 2 2 2 2 2 2 2 2 2 2 2 2 2 2 2 2 2 2 2 2 2 2
left_child=1 22 -2 5 -3 -4 -7 9 -5 10 -6 13 -8 14 15 21 -16 -17 -12 -9 -21 -11 23 27 -10 -26 -22 28 -1 -29
right_child=2 4 3 8 7 6 12 19 24 11 18 -13 -14 -15 16 17 -18 -19 -20 20 26 -23 -24 -25 25 -27 -28 29 -30 -31
leaf_value=-0.00040077181688199441 0.24107119064955485 0.13240914589935734 0.13241581068862052 0.23112840056419373 0.057317105037244888 -0.11166211535984821 0.082832074668258426 -0.11117587802665574 0.048715028688311582 0.018446975983679295 -0.11728071752521728 -0.045627929510608796 -0.041556247845292098 0.11639225147664548 -0.097898216013397488 -0.0014709441418138645 0.029257291654745738 0.067514004160396088 -0.01395600207331704 0.065443249859593142 -0.090552463826651761 0.12190435396650663 0.018041063230404785 -0.056584197649841794 0.074936753362417216 0.20498467398726425 0.019376422553544954 0.089945555478334438 -0.13436531779311953 -0.0070188822404783288
leaf_weight=30 21 31 21 21 44 22 40 21 25 20 27 31 20 38 21 96 45 88 41 22 26 65 233 68 20 23 21 22 21 4813
leaf_count=30 21 31 21 21 44 22 40 21 25 20 27 31 20 38 21 96 45 88 41 22 26 65 233 68 20 23 21 22 21 4813
internal_value=0 -0.00306895 0.0946187 0.0786004 0.0257572 0.0272459 0.000312091 0.0203014 0.138033 0.0293509 -0.0108645 0.0404998 0.0413693 0.0476578 0.0398611 0.0523894 -0.0112013 0.0315219 -0.054982 -0.0315822 -0.00735808 0.0975614 -0.00660901 -0.00776837 0.109283 0.144497 -0.0414353 -0.00708898 -0.0555626 -0.00657768
internal_weight=0 5824 213 192 637 103 82 606 89 516 112 404 60 373 335 269 66 184 68 90 69 85 5187 4954 68 43 47 4886 51 4835
internal_count=6037 5824 213 192 637 103 82 606 89 516 112 404 60 373 335 269 66 184 68 90 69 85 5187 4954 68 43 47 4886 51 4835
is_linear=0
shrinkage=0.05


Tree=12
num_leaves=31
num_cat=0
split_feature=5 5 4 10 9 10 4 9 9 10 0 4 1 8 0 11 3 5 11 4 10 5 3 4 10 5 5 11 1 1
split_gain=709.151 193.763 189.228 245.257 213.706 139.685 119.067 106.845 93.5233 98.0828 182.327 92.3561 82.0467 87.5637 79.5794 79.1862 119.242 73.7883 71.8087 84.7387 69.4563 61.4228 57.3665 57.6422 49.9367 73.8031 49.638 48.8088 94.565 46.5769
threshold=3.3350000000000004 1.6950000000000001 1119770.0000000002 9.4825603392817754 1.4080503104076538 52.517223531924614 230281.00000000003 -0.81314616147981911 -11.806622857203157 3.6675365262629329 541.40500000000009 1981229.0000000002 95.635000000000005 -3.0423368013135526 105.7 4.9420808687528144 297.61500000000007 0.33500000000000008 22.633286232262005 1451247.0000000002 2.5317403413592192 1.6250000000000002 1106.3600000000004 485718.00000000006 -11.40349368683089 0.56500000000000006 2.2950000000000004 44.449867688370709 510.28500000000003 197.86500000000004
decision_type=2 2 2 2 2 2 2 2 2 2 2 2 2 2 2 2 2 2 2 2 2 2 2 2 2 2 2 2 2 2
left_child=1 7 3 4 -2 6 15 12 -8 10 -10 -4 13 -1 -14 -3 -17 -9 24 -20 -6 29 -7 -24 25 -19 -11 28 -5 -16
right_child=2 5 11 27 20 22 8 17 9 26 -12 -13 14 -15 21 16 -18 18 19 -21 -22 -23 23 -25 -26 -27 -28 -29 -30 -31
leaf_value=-0.15806611873209478 0.024085104823112491 0.054451250555840408 0.25722519353032114 -0.0085152860660597969 0.14866270785341446 -0.10991245843470097 -0.031111853772943673 -0.011904726608457471 0.20798550807974406 0.015987966139608425 0.059648975842956746 0.11174347940832377 0.085927501544356355 -0.029932598741725089 -0.047737146963543718 -0.12911289899863981 0.00019892863879733265 0.01517767346650362 -0.0098540819000712751 0.034502105857627315 0.27606616228818898 -0.097391360524025833 0.05507896631246522 -0.04560515919054689 0.010720773089051578 0.1154397861646681 0.06471614209813592 -0.038034307555510453 0.086389990630917832 -0.01167757888734966
leaf_weight=20 25 44 20 53 23 20 33 960 27 121 89 24 20 40 94 22 94 50 917 122 20 22 21 44 1021 29 92 26 52 1892
leaf_count=20 25 44 20 53 23 20 33 960 27 121 89 24 20 40 94 22 94 50 917 122 20 22 21 44 1021 29 92 26 52 1892
internal_value=0 -0.00315066 0.0840375 0.0632903 0.140334 0.0235782 0.033257 -0.00627856 0.0491329 0.0571818 0.0941756 0.177872 -0.0150211 -0.0726438 -0.0133162 -0.00266206 -0.0243257 -0.000388166 0.00478056 -0.00464575 0.20792 -0.0143047 -0.0358614 -0.0130764 0.0136841 0.0519828 0.0370349 0.0232983 0.0384854 -0.0133843
internal_weight=0 5794 243 199 68 607 522 5187 362 329 116 44 2088 60 2028 160 116 3099 2139 1039 43 2008 85 65 1100 79 213 131 105 1986
internal_count=6037 5794 243 199 68 607 522 5187 362 329 116 44 2088 60 2028 160 116 3099 2139 1039 43 2008 85 65 1100 79 213 131 105 1986
is_linear=0
shrinkage=0.05


Tree=13
num_leaves=31
num_cat=0
split_feature=5 5 7 4 8 11 9 10 8 6 9 4 1 8 0 5 11 4 4 11 11 8 4 1 5 4 1 1 10 11
split_gain=642.349 192.607 171.371 197.865 131.355 130.755 96.428 95.2415 134.471 86.45 79.8373 74.5041 74.0472 79.0263 71.8204 66.5939 64.8073 76.4767 60.2748 114.485 82.6563 110.894 69.4532 103.937 69.6022 135.966 72.7949 62.8567 61.3791 60.1295
threshold=3.5000000000000004 1.6950000000000001 122.71100000000001 537541.00000000012 -59.347459103942576 86.860778986685418 -0.81314616147981911 7.5449392569572131 18.424733805079654 476.37700000000001 19.004036374068669 452645.00000000006 95.635000000000005 -3.0423368013135526 105.7 0.33500000000000008 22.633286232262005 1451247.0000000002 171068.50000000003 4.9420808687528144 37.93388032707329 7.0489956424582099 287992.50000000006 782.5350000000002 2.4550000000000005 825407.50000000012 1126.9950000000001 624.86500000000012 3.8352432148360016 56.865393386393023
decision_type=2 2 2 2 2 2 2 2 2 2 2 2 2 2 2 2 2 2 2 2 2 2 2 2 2 2 2 2 2 2
left_child=1 6 -2 7 -3 10 12 -4 -9 -5 18 -10 13 -1 -14 -8 -17 -18 19 -6 21 -20 -22 -24 26 -26 -25 -23 -21 -28
right_child=2 4 3 9 5 -7 15 8 11 -11 -12 -13 14 -15 -16 16 17 -19 20 28 22 27 23 24 25 -27 29 -29 -30 -31
leaf_value=-0.15016280688345432 0.22123405603425847 0.14321510222825137 0.11861812961953028 0.21407187226272764 0.051728688900104985 -0.059481791722379176 -0.011309489863136454 -0.10646221312609586 0.077447456568479539 0.098011621758889625 0.10366963978496291 -0.04074525482952595 0.08163112822920085 -0.028435969054698945 -0.013589485558404125 0.012999926362863996 -0.0093613779017712988 0.032777000470544958 0.10117927218519458 -0.11030022939149704 0.085880810860544443 -0.0001232637399500543 -0.10641804669391026 -0.08274239565112762 0.15908280335366728 -0.0081316152407277017 0.061942161961148184 0.065473444419378621 -0.013673304447105954 -0.029762341578801473
leaf_weight=20 21 22 21 21 44 49 960 22 40 68 31 20 20 40 2008 1100 917 122 73 27 24 91 22 28 20 31 33 61 42 39
leaf_count=20 21 22 21 21 44 49 960 22 40 68 31 20 20 40 2008 1100 917 122 73 27 24 91 22 28 20 31 33 61 42 39
internal_value=0 -0.00277818 0.0856245 0.0707922 0.0231686 0.0188743 -0.00596463 0.0236098 -0.000721653 0.125397 0.0256577 0.0380499 -0.01427 -0.0690116 -0.0126504 -0.000368758 0.00454153 -0.00441346 0.0211374 -0.0112949 0.0298219 0.0505278 0.00617305 -0.00488467 0.00990827 0.0574427 -0.0143343 0.0262017 -0.0514838 0.0122689
internal_weight=0 5824 213 192 637 615 5187 103 82 89 566 60 2088 60 2028 3099 2139 1039 535 113 422 225 197 173 151 51 100 152 69 72
internal_count=6037 5824 213 192 637 615 5187 103 82 89 566 60 2088 60 2028 3099 2139 1039 535 113 422 225 197 173 151 51 100 152 69 72
is_linear=0
shrinkage=0.05


Tree=14
num_leaves=31
num_cat=0
split_feature=5 5 7 4 10 10 10 4 11 11 2 7 8 1 4 11 1 3 11 5 5 6 1 8 10 8 5 5 0 11
split_gain=579.72 173.828 154.663 188.384 147.09 122.611 86.1992 68.8094 100.552 83.516 72.6268 65.654 100.333 61.712 60.7142 68.0813 58.8533 57.7457 59.2296 48.115 62.5254 148.254 73.4118 72.7818 81.079 76.4196 74.1976 60.3618 46.3906 45.7746
threshold=3.5000000000000004 1.6950000000000001 122.71100000000001 1119770.0000000002 5.7707906406542815 -42.704426340295235 52.517223531924614 171068.50000000003 4.9420808687528144 75.205734051593183 1485.6450000000002 1028.3060000000003 -3.7388892978861739 160.98500000000004 340613.00000000006 44.449867688370709 1108.7950000000003 1106.3600000000004 87.84601130134331 1.5950000000000004 1.1650000000000003 116.70700000000001 2418.3900000000008 -49.096769253352925 26.456023910524888 -66.689297142815789 1.4150000000000003 1.4350000000000003 1227.7500000000002 74.46662614741318
decision_type=2 2 2 2 2 2 2 2 2 2 2 2 2 2 2 2 2 2 2 2 2 2 2 2 2 2 2 2 2 2
left_child=1 19 -2 4 -4 -3 7 8 -7 10 11 12 -9 -10 -6 -16 -13 -8 -19 20 -1 -22 23 25 26 -23 -25 29 -18 -26
right_child=2 5 3 -5 14 6 17 9 13 -11 -12 16 -14 -15 15 -17 28 18 -20 -21 21 22 -24 24 27 -27 -28 -29 -30 -31
leaf_value=-0.0070128262701263993 0.2101723524076598 0.11899887352220473 0.15059792044071052 0.16534941691236618 -0.032841852670045274 0.049142254296351565 -0.10070229633933021 0.14886588709936902 -0.121653885319829 -0.044318633887075611 0.12340757268667223 -0.07988086283206941 0.037524651671438258 -0.017116015947734316 0.06619919730161411 -0.038571389988064766 0.074327907030997065 0.043803217101958586 -0.049090851188914202 -0.041906380428829132 0.087746831049610466 0.001132189709207286 0.087589242978720006 -0.0002974823435025026 0.024660660773515704 -0.12921555245464497 0.048929044857555837 -0.081477606493025656 -0.019393140870717265 -0.062048816275479195
leaf_weight=4516 21 31 26 39 38 44 21 22 20 31 25 20 252 48 69 20 23 32 37 90 56 23 24 233 45 22 114 41 31 23
leaf_count=4516 21 31 26 39 38 44 21 22 20 31 25 20 252 48 69 20 23 32 37 90 56 23 24 233 45 22 114 41 31 23
internal_value=0 -0.00263927 0.0813433 0.0672526 0.0422475 0.0220102 0.0170487 0.0249243 -0.00975346 0.0345379 0.0410917 0.0351782 0.0464645 -0.0478624 0.0200656 0.0426552 -0.00661166 -0.0281045 -0.00600954 -0.0056664 -0.00502649 0.0104129 0.00216393 -0.0019283 0.00405838 -0.0625934 0.0158749 -0.0335594 0.0205251 -0.00466754
internal_weight=0 5824 213 192 153 637 606 516 112 404 373 348 274 68 127 89 74 90 69 5187 5097 581 525 501 456 45 347 109 54 68
internal_count=6037 5824 213 192 153 637 606 516 112 404 373 348 274 68 127 89 74 90 69 5187 5097 581 525 501 456 45 347 109 54 68
is_linear=0
shrinkage=0.05


Tree=15
num_leaves=31
num_cat=0
split_feature=5 10 0 11 1 9 6 4 9 5 5 0 1 0 0 1 0 0 4 5 4 11 11 10 1 10 4 1 5 1
split_gain=436.885 244.542 200.304 152.353 194.333 104.294 102.284 180.324 80.9872 78.9563 69.8414 58.4005 92.4709 107.564 56.9858 55.477 58.4911 57.0008 53.1564 73.8725 51.3789 69.8454 66.7529 97.3064 47.7011 45.0724 45.0158 93.2761 43.301 56.1826
threshold=2.3650000000000007 52.517223531924614 1425.7600000000002 7.4344658428710586 398.77500000000003 0.021866875721549207 70.318000000000012 6429.0000000000009 -1.3176901311990388 0.52500000000000013 5.3150000000000004 487.39500000000004 646.1500000000002 777.08000000000004 586.17500000000007 1145.7000000000003 1270.9550000000002 925.00000000000011 437009.50000000006 2.9150000000000005 2093080.5000000002 79.236420590013978 20.739679050287194 -0.88296425448346805 3210.5500000000006 69.211714431158967 1981229.0000000002 2176.5500000000006 2.0250000000000004 605.20000000000016
decision_type=2 2 2 2 2 2 2 2 2 2 2 2 2 2 2 2 2 2 2 2 2 2 2 2 2 2 2 2 2 2
left_child=5 3 25 -2 8 26 7 -7 -5 -8 11 -6 14 -14 -13 17 -17 -15 19 -10 22 -22 23 -11 28 -3 -1 -28 29 -24
right_child=1 2 -4 4 10 6 9 -9 18 20 -12 12 13 15 -16 16 -18 -19 -20 -21 21 -23 24 -25 -26 -27 27 -29 -30 -31
leaf_value=-0.0090907071043618403 0.15645048056657498 -0.050390641326489662 0.078304313006810844 -0.070815824741317382 0.14635030928660522 0.015392659669963733 -0.0083279817336772682 0.16607652742129109 0.078712411150336281 0.051042463768335336 0.16258030720055106 0.043416027646315726 0.15700459823840196 0.072833491537881934 -0.060854206439107661 0.15138267586412638 0.046848702407442037 -0.037317894430210191 0.092680255288169505 -0.038978272367967297 0.088904311694204818 -0.020207882469350642 -0.073495615224043534 0.0059303079055098356 0.064073941791085179 -0.14937725789521053 -0.12711409178252023 0.015419505765153605 0.041155173522694148 -0.0037017617236435002
leaf_weight=2884 39 23 24 31 22 84 1101 26 20 181 22 38 36 23 20 23 32 24 21 40 44 22 30 352 27 23 24 22 51 742
leaf_count=2884 39 23 24 31 22 84 1101 26 20 181 22 38 36 23 20 23 32 24 21 40 44 22 30 352 27 23 24 22 51 742
internal_value=0 0.0472759 -0.0387908 0.0626843 0.0522954 -0.00336611 0.00380172 0.0510088 -0.00208828 0.00176533 0.0776744 0.069106 0.0604357 0.0827005 0.00746077 0.0564755 0.0905629 0.016586 0.0242148 0.000251955 0.00943458 0.0525336 0.00737779 0.0212498 -0.00132078 -0.0998839 -0.00987342 -0.0589458 -0.00346617 -0.00641396
internal_weight=0 461 70 391 352 5590 2660 110 112 2550 240 218 196 138 58 102 55 47 81 60 1449 66 1383 533 850 46 2930 46 823 772
internal_count=6051 461 70 391 352 5590 2660 110 112 2550 240 218 196 138 58 102 55 47 81 60 1449 66 1383 533 850 46 2930 46 823 772
is_linear=0
shrinkage=0.05


Tree=16
num_leaves=31
num_cat=0
split_feature=5 9 11 4 8 0 11 1 1 3 11 11 0 9 5 11 11 5 11 11 4 11 11 4 1 1 0 5 9 1
split_gain=395.014 159.551 130.398 145.162 99.8539 155.587 206.881 136.669 116.021 127.672 111.824 104.652 137.685 84.4074 83.1335 156.095 61.7589 58.2328 52.2139 51.064 81.2388 54.247 133.859 45.3568 72.6995 47.0608 78.6567 44.5121 47.3469 70.4487
threshold=2.2050000000000005 -13.592984118388843 7.4344658428710586 236391.00000000003 47.943049349375208 1425.7600000000002 51.040608365734805 761.09500000000014 398.77500000000003 461.63500000000005 14.588461031914397 47.27302355050363 1450.8950000000002 -0.17253900721172891 0.88500000000000012 2.2730929458146942 12.1674575351151 4.5850000000000009 35.132798023417735 81.724465609054349 2093080.5000000002 12.074547788886985 8.6805664754107124 1981229.0000000002 2199.8700000000003 561.96000000000015 557.97500000000002 1.9450000000000001 -9.0664521370803843 1438.9450000000002
decision_type=2 2 2 2 2 2 2 2 2 2 2 2 2 2 2 2 2 2 2 2 2 2 2 2 2 2 2 2 2 2
left_child=13 -2 -3 16 8 6 7 -6 10 -10 -5 17 -13 23 -15 -16 -4 18 -11 20 21 22 -17 25 -25 26 -1 28 29 -27
right_child=1 2 3 4 5 -7 -8 -9 9 11 -12 12 -14 14 15 19 -18 -19 -20 -21 -22 -23 -24 24 -26 27 -28 -29 -30 -31
leaf_value=-0.015592421398876528 -0.070297593995928762 0.1338539193796062 -0.097290427508679306 0.078886243494020569 -0.054141169928369072 0.10057066336951473 -0.13393470953250755 0.12228263733179674 0.20324693300894331 0.057490777226721315 -0.041878335723062848 0.18999099089867541 0.0353829534103473 -0.0031588872242948938 0.15347398824989797 0.017694532519384298 0.0065548649580195184 0.12709663316607475 -0.016162592066185817 -0.030082248149538471 0.078735728934407237 0.0031332098370565838 0.13716997345564541 -0.13010923514608294 0.0047049925930332396 -0.046132950865353149 -0.11575393037870528 0.054557727579958741 0.0011772285262210778 -0.0059113622700528098
leaf_weight=982 30 41 22 36 21 33 29 23 21 77 41 36 24 1974 20 178 41 20 35 66 48 529 27 20 20 150 20 32 1058 397
leaf_count=982 30 41 22 36 21 33 29 23 21 77 41 36 24 1974 20 178 41 20 35 66 48 529 27 20 20 150 20 32 1058 397
internal_value=0 0.0416994 0.0484192 0.0407878 0.0520031 0.0104742 -0.0302544 0.0380804 0.0671827 0.0861976 0.014583 0.0733953 0.128148 -0.00349066 0.00251175 0.0154079 -0.0297086 0.0485078 0.0344741 0.0121516 0.0157161 0.0115949 0.0334303 -0.00985828 -0.0627021 -0.00905731 -0.0175917 -0.00383347 -0.00499766 -0.016941
internal_weight=0 530 500 459 396 106 73 44 290 213 77 192 60 5521 2842 868 63 132 112 848 782 734 205 2679 40 2639 1002 1637 1605 547
internal_count=6051 530 500 459 396 106 73 44 290 213 77 192 60 5521 2842 868 63 132 112 848 782 734 205 2679 40 2639 1002 1637 1605 547
is_linear=0
shrinkage=0.05


Tree=17
num_leaves=31
num_cat=0
split_feature=5 10 0 11 2 9 0 4 5 9 4 7 11 4 4 4 5 5 8 10 9 5 11 10 5 5 4 5 0 8
split_gain=357.891 208.134 166.277 124.999 143.968 85.4279 90.239 110.356 137.844 76.405 68.6458 60.122 70.0103 129.917 72.4223 55.8918 71.6231 50.8366 48.7903 40.8915 39.065 38.2193 42.4589 48.4442 77.4215 46.4143 44.1795 56.3035 43.161 37.3876
threshold=2.3650000000000007 52.517223531924614 1425.7600000000002 7.4344658428710586 416.10500000000008 0.021866875721549207 82.100000000000009 6429.0000000000009 0.9850000000000001 -1.5060188581683629 1451247.0000000002 439.96600000000007 47.27302355050363 799942.00000000012 1538430.5000000002 437009.50000000006 2.9150000000000005 4.5850000000000009 35.069201401021935 69.211714431158967 10.242631759914262 0.30500000000000005 20.739679050287194 -0.88296425448346805 0.55500000000000016 1.7750000000000001 310900.50000000006 1.925 666.62000000000012 87.329893183605421
decision_type=2 2 2 2 2 2 2 2 2 2 2 2 2 2 2 2 2 2 2 2 2 2 2 2 2 2 2 2 2 2
left_child=5 3 19 -2 9 29 7 -7 -9 -5 21 -6 17 -14 -15 16 -11 -13 -12 -3 -20 -8 23 24 -23 28 27 -25 -24 -1
right_child=1 2 -4 4 11 6 10 8 -10 15 18 12 13 14 -16 -17 -18 -19 20 -21 -22 22 25 26 -26 -27 -28 -29 -30 -31
leaf_value=-0.0084690650765169209 0.14193526025001821 -0.045134843043659049 0.070072516053915027 -0.066158257300655041 0.15114368640241171 0.012630067933005869 -0.013757615320947629 0.030718334722850061 0.20390587698668244 0.071622513358791676 0.062050608913103746 0.02851645997685627 0.20706233815068292 -0.011981636905000502 0.10827731211339274 0.093230039140452525 -0.036655023842606514 0.11136049574071712 -0.048715920616751132 -0.1394187951217527 0.026527658903944318 0.0030812183211658905 -0.052564446562353311 0.00038814303255820464 0.049804607744572869 0.028152711189003907 0.053843597865530425 -0.071843869727233362 -0.0052917980154115786 -0.077066184653667741
leaf_weight=2910 39 23 24 30 21 108 473 27 20 24 75 117 21 21 31 23 42 22 23 23 69 193 51 387 164 99 35 29 907 20
leaf_count=2910 39 23 24 30 21 108 473 27 20 24 75 117 21 21 31 23 42 22 23 23 69 193 51 387 164 99 35 29 907 20
internal_value=0 0.0427877 -0.0366142 0.0570028 0.0475927 -0.00304791 0.00343929 0.0404617 0.104415 0.00284851 0.00114848 0.0704449 0.0624512 0.1021 0.0597112 0.0261092 0.00271863 0.0416285 0.0321182 -0.0922768 0.00771676 -0.00106364 0.0021558 0.0107845 0.0245452 -0.00444024 -0.00010806 -0.00464726 -0.0078084 -0.0089373
internal_weight=0 461 70 391 352 5590 2660 155 47 119 2505 233 212 73 52 89 66 139 167 46 92 2338 1865 808 357 1057 451 416 958 2930
internal_count=6051 461 70 391 352 5590 2660 155 47 119 2505 233 212 73 52 89 66 139 167 46 92 2338 1865 808 357 1057 451 416 958 2930
is_linear=0
shrinkage=0.05


Tree=18
num_leaves=31
num_cat=0
split_feature=5 9 8 4 11 5 9 5 11 5 8 9 4 4 1 0 8 5 0 6 8 11 4 8 5 11 1 4 9 8
split_gain=323 140.775 104.956 105.037 100.34 81.3847 69.5797 112.493 156.868 62.0163 78.1454 195.449 91.0749 55.2006 52.6185 49.7923 64.1496 128.552 49.7477 46.9867 159.336 44.9553 49.592 64.8825 83.632 97.1541 70.0028 59.6852 51.7209 45.0072
threshold=2.2050000000000005 -13.592984118388843 2.5153280939933187 122280.50000000001 17.630369224974626 6.495000000000001 -1.3176901311990388 0.88500000000000012 2.2050736072388433 2.7550000000000003 50.607176447237642 11.324312064946382 363632.00000000006 244300.00000000003 561.96000000000015 504.41000000000003 34.07810718995507 2.4150000000000005 549.83000000000015 1100.8940000000005 -9.5451576301998085 81.724465609054349 2093080.5000000002 1.0493478648507522 1.8650000000000004 32.937736596948277 1172.4650000000004 135902.00000000003 3.6013025034384389 -3.1626162742356878
decision_type=2 2 2 2 2 2 2 2 2 2 2 2 2 2 2 2 2 2 2 2 2 2 2 2 2 2 2 2 2 2
left_child=6 -2 4 -4 -3 9 14 -8 -9 13 12 -12 -11 -5 18 -15 -17 -18 -1 20 -6 22 23 24 25 27 -27 29 -29 -10
right_child=1 2 3 5 19 -7 7 8 21 10 11 -13 -14 15 -16 16 17 -19 -20 -21 -22 -23 -24 -25 -26 26 -28 28 -30 -31
leaf_value=-0.021860078309273334 -0.067494526294370499 0.18270309860615627 -0.070654847699662918 -0.0066303364001214504 0.18835789807013831 0.10592953146594326 -0.0044745934256318629 0.15396652258932592 0.061230379460626178 -0.008596274928307869 -0.14340085073684652 0.038856661378553037 0.066430831693628054 0.14831892222166063 -0.0062233966300622202 -0.00014744986380849567 0.0098365781998092493 0.17889659793480583 -0.097322562648712307 -0.0024697279930114748 0.0070857186698251307 -0.026396414359518585 0.063873726963996888 0.0028042290732388808 0.12818871147575833 -0.045488433312857526 0.039492989078355141 0.11994707260916873 0.028701218307018279 -0.008979034572839736
leaf_weight=433 30 23 23 24 22 41 2613 20 42 71 24 38 94 20 1469 28 22 23 23 20 27 69 50 562 21 64 39 41 25 50
leaf_count=433 30 23 23 24 22 41 2613 20 42 71 24 38 94 20 1469 28 22 23 23 20 27 69 50 562 21 64 39 41 25 50
internal_value=0 0.0377065 0.0440185 0.0331404 0.0922605 0.0393412 -0.0031573 0.000949539 0.0153679 0.0314048 0.0161634 -0.0316946 0.0341464 0.0609756 -0.0108291 0.0784223 0.0592726 0.096245 -0.0256663 0.062113 0.0884732 0.0124894 0.0154907 0.0126244 0.0321951 0.0244715 -0.013311 0.0491018 0.0853842 0.0230731
internal_weight=0 530 500 408 92 385 5521 3596 983 344 227 62 165 117 1925 93 73 45 456 69 49 963 894 844 282 261 103 158 66 92
internal_count=6051 530 500 408 92 385 5521 3596 983 344 227 62 165 117 1925 93 73 45 456 69 49 963 894 844 282 261 103 158 66 92
is_linear=0
shrinkage=0.05


end of trees

feature_importances:
Column_5=95
Column_4=89
Column_11=79
Column_1=77
Column_9=57
Column_8=50
Column_10=41
Column_0=37
Column_7=18
Column_6=17
Column_3=6
Column_2=4

parameters:
[boosting: gbdt]
[objective: regression]
[metric: l2,auc]
[tree_learner: serial]
[device_type: cpu]
[data: ]
[valid: ]
[num_iterations: 20]
[learning_rate: 0.05]
[num_leaves: 31]
[num_threads: 0]
[deterministic: 0]
[force_col_wise: 0]
[force_row_wise: 0]
[histogram_pool_size: -1]
[max_depth: -1]
[min_data_in_leaf: 20]
[min_sum_hessian_in_leaf: 0.001]
[bagging_fraction: 0.8]
[pos_bagging_fraction: 1]
[neg_bagging_fraction: 1]
[bagging_freq: 5]
[bagging_seed: 3]
[feature_fraction: 0.9]
[feature_fraction_bynode: 1]
[feature_fraction_seed: 2]
[extra_trees: 0]
[extra_seed: 6]
[early_stopping_round: 5]
[first_metric_only: 0]
[max_delta_step: 0]
[lambda_l1: 0]
[lambda_l2: 0]
[linear_lambda: 0]
[min_gain_to_split: 0]
[drop_rate: 0.1]
[max_drop: 50]
[skip_drop: 0.5]
[xgboost_dart_mode: 0]
[uniform_drop: 0]
[drop_seed: 4]
[top_rate: 0.2]
[other_rate: 0.1]
[min_data_per_group: 100]
[max_cat_threshold: 32]
[cat_l2: 10]
[cat_smooth: 10]
[max_cat_to_onehot: 4]
[top_k: 20]
[monotone_constraints: ]
[monotone_constraints_method: basic]
[monotone_penalty: 0]
[feature_contri: ]
[forcedsplits_filename: ]
[refit_decay_rate: 0.9]
[cegb_tradeoff: 1]
[cegb_penalty_split: 0]
[cegb_penalty_feature_lazy: ]
[cegb_penalty_feature_coupled: ]
[path_smooth: 0]
[interaction_constraints: ]
[verbosity: 0]
[saved_feature_importance_type: 0]
[linear_tree: 0]
[max_bin: 255]
[max_bin_by_feature: ]
[min_data_in_bin: 3]
[bin_construct_sample_cnt: 200000]
[data_random_seed: 1]
[is_enable_sparse: 1]
[enable_bundle: 1]
[use_missing: 1]
[zero_as_missing: 0]
[feature_pre_filter: 1]
[pre_partition: 0]
[two_round: 0]
[header: 0]
[label_column: ]
[weight_column: ]
[group_column: ]
[ignore_column: ]
[categorical_feature: ]
[forcedbins_filename: ]
[precise_float_parser: 0]
[objective_seed: 5]
[num_class: 1]
[is_unbalance: 0]
[scale_pos_weight: 1]
[sigmoid: 1]
[boost_from_average: 1]
[reg_sqrt: 0]
[alpha: 0.9]
[fair_c: 1]
[poisson_max_delta_step: 0.7]
[tweedie_variance_power: 1.5]
[lambdarank_truncation_level: 30]
[lambdarank_norm: 1]
[label_gain: ]
[eval_at: ]
[multi_error_top_k: 1]
[auc_mu_weights: ]
[num_machines: 1]
[local_listen_port: 12400]
[time_out: 120]
[machine_list_filename: ]
[machines: ]
[gpu_platform_id: -1]
[gpu_device_id: -1]
[gpu_use_dp: 0]
[num_gpu: 1]

end of parameters

pandas_categorical:null
